1,12856480593693
1,13192429015769
1,35110936628196
-0,865110457535395
-0,414174718454196
-0,229983178381033
-0,663733795384334
0,585480523706047
-0,293350274080819
0,325258294384795
-0,569440800674702
-0,392558007738091
0,471096918102724
-0,590073125897387
0,855025426828702
-0,788998694553523
-0,0727989111195454
-1,31443864699371
-0,136492881125085
-0,57952550002718
0,155465167727211
-0,49368653898075
-0,525405482741638
1,24327723681795
-1,04149480317684
-0,682636354217882
0,593011980413458
-0,93632305959511
0,260135456014659
0,33270868457029
-0,911949208010468
1,19268627257277
0,156421687025244
-0,141411870060776
0,274020206101219
-0,577681430688816
-0,733794709149198
-0,807497850068174
-0,22848598785298
-0,866369099957564
0,127662970032345
-0,914993526946706
0,141184129145088
0,944501086869376
-0,989026508343469
0,205936599613338
-0,606062470569006
0,455198752805096
0,478669480844877
-0,416148928362247
1,30974365298868
1,14071137526488
-0,445568604682713
-0,177465953188848
-0,506956743671395
-0,292558672135108
-0,353930965809405
1,14812472347158
0,772411642925755
-0,843563848198949
0,286601581313015
0,828099334750853
-0,286986916571812
-0,025765555958231
0,0125797818157661
0,540236900886692
-0,697652081791369
0,722379755688862
-0,908992406257917
0,539944013655725
0,0620623666376006
1,20254222706446
0,354110007838981
-0,819732495300192
-0,183823162605894
0,660354458871906
0,913297914212327
-0,374383849819813
0,967600867381817
0,489946538803358
-1,2341208829544
-1,3583894396152
-0,2156783212246
0,777949220995501
0,658408632865767
-0,933714263670072
-1,01924506393217
0,717813923457006
-0,739604135617495
-1,31207937797259
0,0148890656508205
0,416755705942623
-0,196082517198365
0,489774983359923
0,153320585498415
0,973823785073795
0,506912183728419
-0,246662442170737
-0,874970933257325
-0,293245789992079
-0,0330427443609751
-0,809660074927058
-0,0679023089091542
-1,06129814837735
0,973913853877794
0,0586295764393017
-0,586452170023279
-0,416836937366527
-1,25587717817072
0,104927699319317
0,619969137617365
-1,96842979365486
0,997922796993699
1,05571640886228
-0,826034317542473
0,273342323445379
-0,134786339743846
0,374863920597419
-0,335270990205294
-0,317758859200343
-0,19056864391234
-0,3398032855082
0,545680263188302
1,01004464141806
0,438380541265247
-0,816993850797962
-0,341771553948477
-0,102727549446948
0,427006148455286
0,264661125169929
0,930238312525842
-0,115483132703935
0,650355509908555
0,112756077337232
0,0337095279674976
0,697709803238282
-0,341614281041629
-0,422948303477056
-0,523347730460901
0,889891758205188
0,523326317354606
-0,820129083185198
0,748029993113137
0,273497893528532
-0,3090002819268
0,757794235754524
0,400675715131284
0,470521171133543
-0,412053010606384
0,904940550387481
-0,00649986147875014
-0,143372746527725
0,401452896608648
-0,803976111195453
-0,862007589017201
-1,01199940702861
-0,180359467750684
0,493984002664245
0,0520491372009733
0,268447971892685
0,32339153050801
0,423885137178046
-0,0776682919042311
-0,144479920551093
0,101969137647006
-0,725081651611195
-0,286199042703005
-0,184773551331012
-0,299443076236072
-0,67797328999491
-0,53909580731236
-0,924388266291092
-0,536007879397912
0,160025791224662
0,193747065451867
-0,518752143160658
-0,236557459956163
-0,742096901465558
0,0562245275286617
0,709320078506051
-0,191945413799386
-0,00639164933574006
-0,530358204298825
0,361697391644518
-0,729995235114401
0,320125840435349
0,590755159658257
0,204837879992119
0,0481139684640393
0,0706106298054511
-0,244252105088014
0,056265734391286
0,648293993902341
0,0968233318988728
-0,564992069920651
-0,848320419469723
0,244089305659898
-0,108078325819853
-0,92192458490932
-0,373999557528051
-0,0850010498819841
-0,491746018431466
-0,401975484298488
-0,996033613058086
0,697623354563602
-0,0352513855752139
-1,02893990959546
-0,823792376082268
0,032533655244653
0,379406478542713
0,158676777611406
-0,333780849996817
-0,574625815247233
0,434876339603669
-0,60035318489996
-0,643227709812159
0,11524795469186
0,653326265532329
-0,476201968729324
0,765760986973074
-0,414027684426599
0,370249381408115
0,77476030370247
0,660907455431126
0,596509472674836
0,178933482755128
-0,539671738487682
0,413788856553334
-0,359184730433257
0,148051110217061
0,533893850172794
0,754731679033054
-0,789506475523741
-0,582935005165833
-0,268864170329633
-0,715590826042003
-0,817380614144047
-0,542395765804634
0,731668910272489
0,0560090312633115
0,265312791638157
0,44200378675904
-0,705703738781188
0,461893751062955
0,633209017488519
-0,776248761142784
-0,331122756108645
-0,615601856274839
-0,353794719385688
-1,02172900143719
0,0341078511556654
0,505917289127736
-0,731498567297893
-0,696185224774716
-0,858450547795944
0,384025172713541
-0,290971604164306
-0,111839067048952
-0,496818594172062
-0,657483589421579
-0,338913149315093
-0,27900100747372
0,35803364299191
0,904100810450918
-0,797947339948998
0,429127993646042
-0,59160420415982
0,954010815083386
-0,563649387699516
-0,834534265581623
-0,838780275405618
-0,273695082191781
0,982357345146342
0,522543057354939
-0,442083352829099
0,196711406061979
0,230818486366442
-0,66300727996792
-0,852099806880098
0,3706036523635
-0,626598615980162
-0,939327454081465
-0,2858031441597
-0,251279811162489
-0,790706627973736
1,02566661421259
0,896781125467993
0,641406555304461
-0,494323004173157
0,62839923879403
0,510083996680134
0,404650272578108
0,919450163839116
0,161229173942665
-0,471248482526799
-0,114391951219386
-1,01505674858098
-0,598508039489088
0,344574272100873
-0,808273622243962
1,00674871965465
-0,865319272202078
0,617432306501353
-0,506577790539728
0,872451824641412
-1,06609744555967
0,766618375639033
-0,485188313099344
0,849634349169981
-0,123344545530135
-0,613658796290574
-0,536658345617333
-0,24446913895603
0,556345004916672
0,666077756344336
-0,233129150663835
0,776593511209927
-0,355624746093977
0,57796349899788
-0,852059196368395
0,722459259459357
-0,58184899932964
0,754228471264759
-0,124039058972693
-0,412420553651467
-0,274574013811083
-0,0594405992990492
-0,492694697125375
-0,15150302240256
0,380712830433402
0,0339127633125216
-0,0620850093222174
-0,167230122598764
-0,903492450021772
0,777204564785955
0,623751871803863
-0,902298124747398
-0,628752181319442
-0,354953564492437
0,917208021702039
-0,574538898424045
0,269151403695377
-1,05229086229519
0,415236469619806
0,49468975988468
0,479290824358526
-0,530413903097529
0,11155729056793
0,31406859393474
1,47419399672113
-0,645807086735925
0,143183108986264
-0,434488710671018
-0,222793377265782
-0,452546884500927
0,663177974875179
0,419070929748442
0,075962170516735
-1,09213987586695
0,0147250082783727
0,71835684761931
0,376013691990423
0,891307280028405
1,00929959748829
0,940203738802154
0,744517906162634
0,03976778028781
0,0584498759341336
0,670101824708799
0,998493655793425
-0,841972666220389
0,329457371018211
1,26004496319667
-0,694216913935605
0,93967285789894
-0,220013901061839
-0,559009056519689
-1,01057583565522
0,833622854449284
0,17137847684524
-0,96618957112196
-0,850720526946978
-0,0156152803166835
0,17153098228781
0,222388822856684
0,382617120922902
-0,961197533874985
-1,31503110723614
1,13521964205442
-1,02894742584983
-0,0457606861659772
0,438602713989658
-0,711126343405896
0,921324251216497
-0,298519099401848
0,199544338740963
-0,141018677214281
-0,977054151292792
0,378565967847505
0,82555847175432
0,921337736369779
0,670150516956417
0,349018382618155
0,851239523949669
0,42521580692101
-0,231379727887695
1,03065075250692
-0,302292552099406
-0,143792360173845
0,167229921800235
0,146910300712313
0,194130927842124
0,188082122191547
-0,310349562389809
-0,165254622532765
0,276508269592284
0,851864832871288
-0,359569530753707
-0,605907620242747
-0,76903030493434
0,52137644629582
0,411845238576084
-0,0956381418151723
0,288835944143523
0,135028008489475
0,179684630434162
0,81286725862455
0,970727669970025
0,509825684173314
-0,324022978295869
0,612684913628312
-1,04466724078006
0,0104586230432906
1,0966565420058
0,369116229837802
-0,166185215329005
0,3146469709115
0,295592750947113
0,417531729186124
-0,451147503501469
0,607381447098845
0,943051603411886
-0,121290974599678
-0,770799840168564
0,638972158259655
-0,665202414960235
1,13527365874747
0,139460896557419
0,579726575190343
0,0932366502385852
0,153181081239905
-0,729891910817788
1,05242878821347
0,160053580792433
-0,0710231536576015
-0,245896969577273
-0,347929095718172
-0,3826250557236
-0,103137329437752
-0,769627399039163
0,201391775042263
0,420894365381226
-0,49484975049732
-0,575112897349255
0,776292558210434
-0,222414583584447
0,719031540189817
0,323508867987698
0,229493187854303
-0,453520360339382
-0,765048507127154
-0,240178214756457
-0,205118596127984
0,935094569788477
-0,580564064474204
0,520520632771365
-1,00869562547381
0,0167865024696448
0,556074323355298
-0,267726423866744
0,550795944106119
-0,720279993955837
0,0288606756592323
-0,918951150871964
-0,157273112322902
-0,0845380636255516
-1,02911556728186
0,955985813513386
-0,094293892531203
-0,54535264268032
0,396192176608245
-0,104571508177595
-0,450469201510256
0,748600539525836
0,643510849161214
0,714273174078722
-0,145723031663737
-1,14523255770692
-0,827224334806568
-0,33573543745026
-1,10894555344019
0,0892545892615518
-0,914144935805419
0,110017084118948
0,196581198618434
-0,195309515471814
0,669084493769177
-0,67583461673651
-0,256645208995945
0,319574327894412
-0,604708296532105
0,772653293232608
-0,453776899909432
0,582537794408888
0,160487477500845
-0,0290374002073977
0,454220721366595
-0,43778975590549
0,651385545447445
-0,236492001544435
-0,244178829344856
-0,779233608781447
-0,739212571912173
-0,0489417289038966
-0,20518700184888
0,455190553171186
-0,851942766180633
0,564205447540401
-0,803637962397808
-0,327622975104938
-0,174549676457127
-1,07432615212712
-0,517253942496421
-0,0722355480834686
-0,0616405738811178
-0,247341327927096
-0,862349165567159
0,73484845513777
0,0936806532768314
-0,923339799366385
0,46413274197277
-1,09124701587505
0,20802785955152
0,652186521334889
-0,839768184695908
0,548305765550846
-0,51576500515989
-0,596222281206456
-0,236716047343638
-0,385160722339121
-0,270903616019485
1,00749552287926
-0,39654766837678
0,944540317729731
0,927511816035022
0,937613980192296
-0,912064011997129
0,0758838748383046
-1,07268498751796
-1,00139923772914
-0,407218324322874
-0,823428309083486
0,833114014863213
-0,986635877248834
-0,410916289230776
-0,579700734945954
0,266300704922699
0,30394788925904
-0,17195620075206
-0,936553535177065
-0,46993905346928
0,0871457832405862
0,742502411505342
0,697229350621637
-0,121035274449328
-0,570371118464349
-0,0272438578120968
-0,343505060048043
-0,311076318514571
0,147532840799241
-0,767642111036883
0,558148480259895
-0,036235499902219
0,554786566278329
0,9446979472156
-0,115303365757994
0,495595780054696
-0,446500024523527
0,182872567590468
0,00423095623657967
-0,237790905151967
-0,345383684210669
0,826582130967477
-0,187367152583393
0,757722032553553
0,288510260795898
-1,03077300425652
0,04058664507068
0,200559150511336
0,521267171805785
-0,91659454280296
0,400839930506194
0,820471950159422
-0,501656919977017
0,997604598758374
0,438916926535512
-0,779568324423706
0,0550127122084096
-0,183334414089785
0,165950514764449
-0,0980299654067943
0,617424203399028
-0,503438029553616
-0,0746920717457573
0,602360173182734
0,04007415955388
0,0478283240233889
-0,737612126864547
-0,845368086823379
0,808751891287922
0,0479800880451027
-0,0325435212908375
0,832796266232072
1,05367073713847
0,665843991908194
0,734961736332273
0,53629308208591
-0,324204424297727
1,07755393989959
0,458130221234984
-0,5163845160842
0,980840675137249
0,592650927406026
0,307660004291387
0,139944694353161
0,137376963109021
0,749906261060828
-0,493392084684886
0,485591907934066
-0,493354546853277
-0,476347584034806
-0,463519417493606
0,978602101131802
-0,876847913639158
-1,0754804727048
-0,102646762407822
-0,396647554540863
-0,0209627785960003
0,575420605398203
-0,438876937659725
-0,8524626855197
0,602845453340702
-0,0716581861024921
0,498726108309691
-0,311340850383719
0,220593729986918
0,654160833706836
0,755385822024594
-0,14061048153261
-0,589007186050436
0,917573509464012
0,592399384075182
-0,212531255492972
0,641735202931127
-0,437866218331323
-0,0175290247872361
-0,705811472734726
0,39977778640156
1,02546356729357
-0,688081166676936
0,0382622923864908
-0,219160389660569
-0,433352658100805
0,906756542239611
0,530397675113128
-0,337449144643827
0,13992053805831
0,806224035761055
0,835782128050183
-0,279326888433213
0,74184958851418
-0,360856811569325
0,305791462310132
0,614686766364635
0,142025204025994
0,000230655313814068
-0,0351146213851115
-0,607069528450185
-0,643846666868014
1,02998229687678
0,834509671006181
-0,815511733712264
1,01444526798442
0,335027182091695
-0,381640314203607
0,140534334190445
0,415548804537226
-1,22899388433658
0,344623748716243
-0,295352366000561
-0,260850432426493
0,107485212393706
0,279728101234632
-0,115495444081164
0,343721170145314
0,548293840907917
0,121825980135807
-0,42322994690642
1,3665234172579
0,642547831255018
0,994051923762719
0,723777081626856
1,24350998655183
-0,847941973716669
-0,203239077507265
0,279864785979851
-0,820422671757481
0,323828704594474
-0,839302388434275
-1,01999370999702
0,551329411995385
1,0323582238593
-0,351524416377476
0,860953904695684
0,0275338324000003
0,184523211087216
-0,160680645705566
0,125730797456301
0,325202366276136
-1,16748886072737
-0,0578422987832397
-0,19953507432519
-0,722274412032066
-0,146746833907505
1,07374165063885
-1,02015849578401
0,430053002151298
-0,0543461819527801
-0,911139521255184
0,2050816128998
0,487280340502428
0,5873575632518
-1,25456026432266
-0,354739152100053
-0,660343784359791
0,815576327525502
-1,11048518171125
0,906571179206288
-0,566120599573063
0,964774419336131
0,0671978953063599
0,553929356025088
0,891947277847066
0,338855968375193
0,335372036850105
0,229363458457546
-0,504738659420463
0,138577522762476
-0,992498521283866
-0,973534987260118
-0,0342211073464189
0,701937004611924
-0,788950451214292
0,907381112170232
-0,452817642797932
-0,0290910718372976
0,480774490354295
-0,0166067630611998
-1,07972418761358
-0,588825155541816
0,624989630875951
0,684065743594857
0,454514770651337
0,236853757813891
-0,24675803882885
0,841095006539843
0,394092603523206
0,821858134741385
0,755730111165366
0,033871375286801
0,137695979637274
0,357458787268042
-0,369514250944812
0,498094696251618
0,38417474786816
0,605778705154514
-0,123049874813584
-0,086000525294252
0,437935475666633
0,201035122163306
0,567428790346556
-0,613969993114495
-0,653782638516692
0,968274672490027
1,12140056641227
0,917770813423714
0,890099841716093
-0,614436554891477
-1,01553056534307
0,300631773793432
-0,608513273436069
0,334775191529526
0,453618410920238
-1,19277645622725
0,866728469023431
0,11353180894481
-1,04387714439102
-0,447458822001708
-0,246755235485005
0,265011009798567
0,251716980647903
-0,351312335553894
0,462546122151005
0,251511720954084
0,132750673209199
0,793297906695854
0,0256627215317076
-0,352186068428474
-0,28198509100008
0,103501200781454
0,638549241882776
0,0221809835983297
0,43637007909334
0,0703966648619283
-0,216303711145032
0,0723140376701463
0,293290009949352
0,861720826849994
-0,0873293141675402
0,170102163967798
-0,739551354230511
-0,347764744958851
0,658097732617043
-0,991616537243408
-0,351333523835367
0,917745368897583
0,784130580699427
-0,655114313809502
0,555063588518977
0,783914882874046
0,510326123408345
-0,141837983947103
-0,884753638258664
-0,631566718078214
0,713824457424558
0,134502063915029
0,647944384338025
0,328000096289013
0,322474144298638
-1,18200891995291
-0,658956632074367
-0,152051008189167
1,04230499420623
0,145681720237079
0,430601019467168
0,496318686372345
0,839815101956764
-0,61109133941513
0,414991504186199
0,0150767582203438
1,12475924896913
-1,21703291691494
0,0296416676229509
0,675355248132828
0,25480312060777
-0,808678199494311
-0,0484163422029365
-0,528462532193775
-0,548091607875446
0,0965311819141483
-0,744700391224379
0,0504482976517811
0,14282010363389
0,0172790391889334
0,560354446183006
0,534045210171999
-0,575148411535531
0,438524738778332
0,820837568465564
-1,11183688898618
0,364726721901183
0,744344964127837
-0,0465615414196149
0,4693063094701
-0,631773997742491
0,216929250951111
0,285216423013544
-0,242576297967452
-0,240344151448249
0,386682496923457
-0,903393178913539
0,512820294065008
0,24805917002405
-0,582119374268662
1,09658475638273
0,17527829635389
0,0212089176127779
-0,928666910516862
-0,443888820484304
0,0204612689603865
0,713180842742625
-0,340250039026174
-0,0854361042243556
1,18488757175381
0,935082429042151
-1,231365637605
1,25191424137989
-0,192111867403973
1,06017035569663
-1,02436051139364
-0,0663131247161633
-0,422492994865145
-0,407770858909006
0,738505235199407
1,13276460031226
-0,974732743349219
0,603940332752084
0,952713717503555
0,149477124271924
-0,667243115279488
0,147402494611134
-0,208560844904707
1,16620052653978
-0,00400065488048389
0,140307002924667
-0,14820600560523
0,307860643791348
-0,448739698076606
0,013447187783619
-0,639505814092354
-0,763195698444937
-0,924790068980997
-0,423919871306994
-0,0934282882848617
-0,591313776480262
-0,441008494149035
-0,305601422203184
0,126180478749374
0,596118566944258
-0,576410289456935
-0,0449109284786015
-0,642512558474188
-0,238090757600833
-0,171152641240041
-0,71794765188165
0,724093349990896
-0,0486627849723592
-0,899666875607452
-0,06946077989512
1,00589976616988
0,211925462342086
0,060783600275001
-0,223928017887757
-0,45915849067678
1,06432497112483
0,107792267084466
-0,348539764163989
-0,837687942602604
-0,400816889888265
0,0120862744878506
-0,136245356376633
0,402879967223142
-0,991726712275035
-0,0231516800125707
0,815191735477396
-0,389046906162657
1,01358242580041
0,676767459403498
-0,00623768547583578
-0,145584584213096
0,172657390428918
-0,0671808570396268
-0,534194285424902
0,140956160088987
0,242222401966955
-0,130604213676441
0,568653031511132
0,30359093752531
-0,245187781823615
0,4454101596565
0,832907872360442
0,174229003490194
0,686358656669812
0,0590502504259274
0,288654974992216
0,294739592045392
0,575738892286269
0,95916809507292
0,0419637865017273
0,195677345814882
0,98159430832685
-0,346882336196483
-0,772015712461336
-0,456590501905417
0,520364142219589
0,711688287071455
-0,750508962486805
-0,920231140036223
-0,131310333432183
0,584654071667866
0,269119399035888
0,718226263908732
0,226775302367953
1,24242195002389
-0,297694501707741
-0,455686041399631
-0,0995437763665204
0,1406145006249
0,718583600862155
-0,0273047805635407
-0,0548761515475022
0,0271066762884702
0,274132272510529
0,54418863554423
0,34235444941222
0,752574270532802
0,771688240828735
0,063077057300644
0,49812564741967
-0,307377621596982
0,27558744744052
-1,44193910653725
-0,893850278868784
0,54555778521546
-0,236479659431155
-0,853991440619642
-0,649890860939338
0,616844260163265
0,442754877683645
0,356184211336004
-0,677180127984791
0,495245953209289
-0,719268787952758
0,396526515421793
0,716852308762359
-0,323844804988593
-0,804086020256513
1,00903677559218
-0,700476331565389
-0,136097055013723
-0,0422199562152854
0,850228011296127
-0,385017021446096
-1,12220056352431
0,611600145186476
-0,562804542040987
-0,109347961148852
0,654229475315808
0,157832086009983
0,690642954095128
-1,14830155504149
0,345874640978455
-0,404769062881361
-0,331389830463576
-0,505144913702094
0,536823721616924
-0,350490546399694
0,374124676501821
0,0544453545947681
-1,14318078332581
0,705634634679085
0,0164057514992174
-0,905685866183578
0,80539295302724
-0,350904063220796
-0,728371963679241
0,33542625430618
-0,339421699497056
0,380530733566549
-0,0949553748379472
0,803326105683269
0,726361835883102
-0,567803562609261
-0,435546403355464
1,10263385160524
0,155478332764373
0,0664986598138579
-0,516088403211559
-0,858826731879396
-0,571555991619142
0,519120778322158
0,592248901826465
-0,199667654975502
0,599131278496036
0,643194993350722
0,431280928720445
0,283429048655014
0,933193062886762
-0,560312596421612
-0,785186854549314
1,1000949212401
0,00372479020337503
0,193671203064954
-0,97712323269108
0,495732606232729
0,622405127275564
0,544470326152917
-0,311255843385599
0,818879867532968
0,526678809906221
0,239886753303865
-0,183334560253152
0,727209502814265
-0,334372592236428
-0,471049039297845
-0,86285441241053
-0,213973411969422
0,357476344813565
-0,043939106010785
0,42149937770956
-0,800317719584977
-0,514626102978549
0,540098823321258
-0,482397961595381
-0,233333760143668
1,23232487344183
-0,720891994851695
-0,761898962375385
-1,01840580873681
0,104608749614911
0,428320710529577
0,0188901963543525
0,55697198299823
-0,158136685973569
0,420388387565353
-0,791557410277318
-0,173806493658619
-0,920708419045484
0,695037085744572
1,03315218544103
0,542923233258491
-0,304698421690145
0,0179417836844553
-0,258829429588671
0,212227078566837
-0,41172903651055
1,16444153906208
-0,903488478814441
0,139894546588743
-0,0991029915568903
-0,784880345967048
0,380895793117936
0,565936272455837
-0,0188376077593906
-1,39383249942213
0,221946899924898
0,660198046415935
-0,611406695577802
0,722318622209818
-0,0520049924075059
1,17095020663145
-0,0919315598343318
-0,252836449597879
-0,271312956013778
-0,744202704368137
-0,858831891907209
-0,261945376772043
-0,521352360978863
0,249880260005534
1,05427702922532
0,378113077089209
-0,220042528254094
-0,376015917517033
-0,415700366119037
0,648515868609995
0,860779282425455
0,35484079443302
-0,549041145527448
0,497917864327636
1,37690464394026
-1,35310855406699
-1,24673399387604
1,03701075454422
0,31866227080552
0,0671861670525428
0,244249276102248
0,534118034751259
-0,588970729828637
-0,0748474679242551
0,567277127478201
-0,574929757026232
-0,56273359224987
-0,970343327883664
-0,977054012306227
-0,933536855280547
-0,618308968720477
0,317355728663496
0,697776581821001
0,830780502919087
-0,458970609631938
0,96274824361973
-0,109857638475267
0,151275557420302
0,13225611729668
1,1865832134517
0,597853286384194
0,0511178452274463
-0,688222014886822
0,370493382599924
-0,644338449800274
0,8245277382761
0,227962619726482
0,0467387023461652
0,839806739868292
0,371052689468522
0,868680906800939
0,423061657666949
0,95508263886687
-1,0369810823765
0,0796744077982007
-0,18747243713694
-0,37267085330892
0,501518715404614
0,291779786323806
0,0705277230331984
-0,361860164145505
-0,415790389797542
-1,0593627324118
-0,604743616351234
-0,127750106485932
-0,860566420591793
0,865632548060273
-0,110332283093995
-0,351282989760848
-0,203856112577222
-0,303607640056285
0,167785841245028
-0,441312492776458
0,190779400916966
0,368493478904588
0,727106551812313
0,201591243165355
-0,419464067468795
-0,356399084801667
-0,808092006644074
1,15114152808998
0,449187753608707
-0,727855756485711
-0,203578565059525
-0,318756312436668
0,0425002408355245
1,09721276964286
0,831382271942689
-0,503860311295413
-0,977140546017225
-0,0719769179669455
-0,631444703494017
0,292520040862711
1,00697779652681
-0,079822964268741
0,010381539546893
0,343579468311718
-0,59512020831752
-0,0273736040538486
-0,994553543297507
1,00585306539822
-0,844351224828
-0,304365529492113
0,408350670150849
-0,0547165227390095
-0,179162047318178
-0,311989434464332
-0,513513103402799
0,107017824147755
0,609796887951152
0,670580850182012
-0,622692461861862
-0,434476918715183
0,467863160257372
0,163721565200028
0,324940444780902
-0,51853715732098
0,253677542217362
0,766150535945527
0,680093224607649
-0,796118882516396
1,03894877389027
-0,0739119953234523
-0,434977730485281
0,346275606290055
-0,258777826605516
1,06481810856918
-0,375638200846634
0,950990383857229
1,27740121388567
-0,331830580594482
-0,500733692097218
0,505433779786429
-0,158599649392298
-0,992229183373397
0,61409412348379
-0,415486632809354
0,119489027853066
-0,782379849480489
-0,611818445562103
-0,587258101884217
0,291975285960633
-0,265544233710057
-0,29587613056149
-0,759816363214709
-0,0753777354122453
0,160532992856234
0,725890157119239
-0,218330394232113
0,437024276438757
-0,162316827074565
0,978601785102389
-0,137039643698633
0,422715032792521
-0,922287201265828
0,757715511389631
0,820977917366636
-0,826841918572803
1,04581136092657
-0,829560373957764
-0,416661081525668
-0,667166215983122
0,0529274909865758
0,0398893429845571
-0,0735819397233663
0,101506696997614
-0,453674692488533
0,921715840674274
0,154720714509401
0,167354063910722
-0,341951243499548
0,496990859618356
0,319199689691969
0,414035931448472
0,10522619159112
-0,637162944740925
-0,107995367278132
0,595907742423831
-0,466706927890687
-0,222869549608938
0,0423766374309414
-0,794720183625821
0,974782318448711
-0,946455078965178
0,424561407441461
-0,431030854930559
0,0979405403823866
-0,978412215682528
-0,393637140598024
-0,77665194090561
-0,860809932140091
-0,279574702189616
0,0861507462094733
0,707081701725366
0,618500092192316
0,959512217539582
-0,613469419094177
0,303507107636229
1,02288507328938
-0,176135746205599
-0,620766540077619
0,228282937290667
-0,177378701527871
0,393621031766381
-0,225751240790597
0,496023331891669
-0,297180485056492
-0,789521486023491
1,11886508535197
0,423535762031383
-0,0206636894046963
0,820492685053093
0,334435931348316
0,640201562991931
0,316471015124445
-0,857451783690084
-0,591098407431693
0,0710639348084183
-0,655946691352241
-0,380266496551995
-0,33541471841598
0,832639034510321
0,462497871534496
0,0428513790188721
0,260153283840105
-0,579432446644449
-0,625489847422163
0,10059019760954
0,103290627378235
0,211049300219247
-0,657200169641803
0,437542291874738
-1,05982115403152
0,606120488419227
-0,864697130892019
0,617787563110371
0,405988613840182
-0,50675428769389
0,389336332589315
0,421486146064923
0,974834901057991
0,198482890451492
-0,594267643595682
0,0985815204102864
0,519759584941265
-0,693373578946561
0,0966181972524102
0,685771368425083
-0,215829147171244
0,353698510968704
0,124817824607617
0,511175698743861
0,207348906880114
0,417313599722781
-0,209701606934529
-0,420551648947541
-0,997065424371803
0,369742381914158
-1,1527662796234
-0,410733656436219
-0,082086479780417
0,3791335774278
-0,121301573018327
-0,175237067966778
-0,26481961533463
0,0242112843232741
0,503376160073575
-0,711977896927144
0,0164504585530934
0,0868616333851303
0,212302572821887
-1,01863584358598
0,642848926322962
-0,642085232496231
-0,303031807414178
-0,239651232160315
0,468612990490505
0,856100346642353
0,267232251235328
-0,306042165209891
0,475395343675459
0,0289141299417914
-0,627080445615968
0,973599691504058
1,13019403738014
0,192987381902655
1,15213530470154
0,029248409480923
0,169115874857379
0,812936071544031
0,61766910528518
-0,84577912819436
-0,865062927153956
-0,353914143005939
-0,251446076844297
-0,349990911140678
-0,980952975486941
0,964757757392972
-0,282257124301455
-0,861131501839458
-0,213433185626094
-0,506761105749137
-0,328063012964429
0,697894821212318
-0,72896484158063
-0,114614481032221
0,740647912794503
0,255702016414479
-0,204305445062454
0,51387160677318
0,250265718423872
-1,11684742759574
0,709691221808171
0,439519605830077
0,21968127212019
-0,916219994395918
0,00412547442519808
0,311745507446861
-0,439613109645042
0,530805105096381
0,202453267230313
-0,0460808020893939
0,0818248153265317
0,413472175785961
1,06349424710525
-0,109938349230054
0,727676711565106
0,120735732313994
-0,953145163837398
-0,931664341661396
-0,241925499699945
0,717803581944283
0,11355719895659
0,243758622585727
0,845061395593277
-0,234877899760956
-0,6911641834582
0,0700944376317377
0,599088809820621
-0,104045979434011
0,441832634771105
-0,362877851268516
1,14499653030876
0,229011373220919
-0,424511644886738
0,230664389801621
-0,631225556637879
-0,0188221091070653
0,469489932534189
-0,494478094996262
0,696368212702033
0,38523871451197
0,221503911811705
0,469300364264055
0,185072766142641
0,906741680586896
0,134959486475123
0,131289942367418
0,591241707104143
0,562060528837867
0,368637136813059
-0,199271002735014
-0,0771579314301585
-0,293027002878515
0,0489180787054709
0,458204122563576
0,236853772211119
-0,527100732557929
0,371191769774405
-0,465777435564486
0,974907573846276
0,47107097030043
0,643701534898842
0,914012693007605
0,745636613576993
-0,716457521728061
-0,282099427862198
-0,652705563722809
-0,129610966239419
-0,0154947423721987
-0,471138460900519
-0,397088803702595
0,74106982246807
0,749743000324685
-0,681388492952566
0,20073683449185
-0,711177701197711
0,415038338886771
-0,998523986394065
-0,860475956293751
0,414582173039939
-0,149045275013072
0,0386893068087535
-0,955146038685441
0,763672994612387
-0,172250432445161
0,532293594360573
0,00905596470222724
-0,821832247986562
0,171826601910467
-0,78446969522065
0,117498695471056
0,710178064964853
-0,33439521772588
-0,602376505027971
0,507417312183383
0,845629129160719
0,102889115841027
0,534523506096645
-0,495558143530751
-0,129555534517359
-0,0542053161747574
-0,987907980272958
0,107543556485556
-0,361198520785873
-0,426460933188655
0,0628794915290858
0,0928042344783382
-0,574365773202876
0,535789806943179
-0,0433921001298972
0,522453996243716
-0,570297898201738
0,248399576665465
-0,219629424348754
-0,499266615496244
-0,524775293089884
0,580048582819025
-0,954936202941644
0,247411365949924
-0,410860473693728
0,444953586883574
-0,947544404730939
0,548028749561648
-0,376206200285349
0,210986282375109
-0,180872708165228
0,00977320673876209
-0,198305261431978
-0,501190235325563
0,855468460355605
0,801099399780764
-0,781590358500321
0,876631304221268
0,126091724339709
-0,130734449982336
0,115909456184649
-0,699409044320196
0,194312688621195
-0,367559715261931
0,567020216109422
-0,359661990753909
0,36162496540752
-0,728368608185654
-0,746753641721169
-0,0581326955758606
0,21869550775732
-0,328129219203687
0,743872337937787
-0,486180967942195
-0,347376010909643
-0,562691903123538
-0,580568169591472
-0,71492005017221
0,612187128954836
-0,0482813387124365
-0,0691867308618741
-0,351760503839998
-0,328170033197394
0,286263891493599
0,548686317422041
-0,663221885189805
-0,921955021503036
0,735631341997677
-1,14581282884728
0,782419782007479
0,394113944933542
-0,273319277887435
-0,43096343768293
-0,615353175372812
0,282827883583092
-0,838890404761202
-1,14957426327477
0,411498278161859
0,61238485008616
-1,06122329772863
0,13173443351172
0,975337343531139
0,606483143430068
0,932986421808121
-0,477225823430293
-0,299993221307517
-0,314224420315698
-0,0254978960139921
0,882404738584136
0,0566177092795121
-0,796305821534837
-0,841420332147384
-0,940685847976617
0,951044625620185
0,659776981166123
-0,704785851897371
0,797045640890042
-1,0968978462211
0,508153792823127
0,532585959273087
-0,812438380057023
-0,0457115042362086
-0,458379125550661
-0,160099024499896
0,565998858752977
-0,531273838131274
-0,867442288842893
1,13027582936332
0,137212145463832
-0,796577672188139
-0,354773798733025
0,356820396388738
-0,338356854507321
0,862228002150003
-0,843234358617251
0,132759790875849
0,139463775988048
-0,207133096339664
0,121915321645305
0,26133168385146
0,0149837457304676
0,459526404474328
0,70340182943037
-0,099782719873472
-0,0993937057878742
0,145061830658585
-0,35171153852618
-0,936678229316716
-0,629682360571853
-0,102880171840661
0,055572776512034
-1,08938822331756
-0,795465171957527
-0,857887251799259
0,633040172000193
0,677745853371529
0,0903240661184465
-0,694838708768472
-0,705052575120662
0,959054674005865
-0,692011057303376
0,0686736204299219
0,882518132835557
0,385302399094828
-0,0552713313247558
0,698731825099379
0,265670917382634
-0,185312680707833
0,683611010795977
-0,634218723937584
0,425694179906501
-0,0849430564694632
0,128475407595982
1,1007644907236
-0,588920475672576
-0,0971673419042995
0,746160395510848
0,250134432742698
0,716865594891452
-0,649333467683667
0,777041856648106
1,06572757928379
0,12602858872237
-0,918906730974839
0,614975553507583
-1,03855323150971
0,0685339767818374
-0,754974866332488
0,80444950201377
-0,268124049772827
0,755228780310313
-0,580816311786899
-0,253532404126947
0,132394918671041
-0,224347758629658
-1,2994980750766
1,17651615892726
-0,507706781027922
0,723557667488689
0,540623912050387
1,12792393306188
0,923281504435698
-0,39331133824943
-0,726926917245033
0,665613585217066
0,78840819131128
0,491228752348531
-0,848977922356016
1,000309358463
0,0590495813664029
0,414421879538109
-0,603433166933907
-0,426181822217911
1,04552932300185
-0,950986595382355
-0,537008108011406
0,743983401410194
0,306037398873816
0,630108387685532
0,0185949260036906
-0,6623363576752
-0,239153141597045
-0,233496264806576
0,158387113946069
-0,132785083812645
0,0799784132641075
-0,714796868456163
0,762870035918304
-0,0413453112109828
-0,660405112450017
0,226531617220949
0,474655348717036
0,59172186576256
-0,74091099814997
-0,274899719095201
0,992843049189929
0,193192841352107
0,116949416302773
-0,390368866513313
1,00821785195673
0,0169096894694597
-0,482650476903772
-0,367123552995814
-0,0133085387810471
-0,573050622852711
0,463207801771288
0,404024037308443
-0,192826891853032
0,0765459639565399
-0,393214732911816
-0,941917789444579
-0,278882391882615
-0,154141716272798
-0,212545130663703
0,426378320402017
0,094390508369388
0,0517871163605736
0,395514416992445
0,24875666038675
-0,330880436598887
0,77444926339721
0,4701593040802
0,3369691922926
0,414273069263631
0,73635938207875
-0,150052462496454
-0,0408935139390295
-0,347727153630476
0,0668121706077531
-1,06066890509387
0,0737263015139463
-0,111462933317098
-0,366841475593971
0,589479677556065
0,956723366034825
1,11115539007595
0,729303316022832
0,738374317083767
-0,536113768445997
0,25624596729334
0,576959359071731
0,537966438231659
-0,301401561815562
-0,432646786391358
-0,59030402190327
-0,192445591484941
-0,655318194817719
-0,4227884162054
-0,229848151011658
0,573308604840265
0,228014552657
0,739560306226234
0,683507065536323
-0,523397762584773
-0,769018839786232
0,586730784839337
0,102277865746161
0,586230327548959
0,370563528954628
0,934759338927683
0,0625099734567979
-0,15698951332087
0,496534570009817
-0,00680843414194042
0,317668268031966
-0,180428213051391
1,37878652573176
0,269227871344426
-0,104480489043569
6,10886387876411E-05
-0,423941659862083
0,569033708047989
0,284082376526447
-0,7406349768645
-0,684779937826742
-0,937462414893039
0,153963883119305
0,0330646176772345
0,0962349691639317
-0,154432231785985
-0,602795662754745
-0,778691918079872
0,576110016388682
0,565365962761939
0,348827956054009
0,00413502941488962
0,218441530523272
-1,01392679005557
0,738851100558887
-0,465861718577188
-0,261659562613776
-0,816315469998831
-0,833911868185011
-0,311691074653902
-0,785785514369904
-0,913994822145262
0,793572388151713
0,615148147367083
0,0113014041942886
0,146929143190225
-0,327551121852554
0,162553639368203
0,363277038128716
0,881885841802234
-0,100516766376097
0,634086483542294
-0,6321746773016
0,552613920736481
0,409156425566437
-0,807716622055727
-0,36633659945424
-0,809071847492428
-0,465300628792551
-1,13517485366089
0,718203215342504
-0,555966331836672
0,108931517677265
-0,726704601232616
0,822072320430321
-0,745590400808309
-0,66400229616943
0,90577065645533
0,697875855443884
-0,0179922100761453
-0,652433326716673
-0,433888703941159
-0,10944218085419
-0,188483750957443
0,762020430633483
-0,841849089299066
-0,480509470704576
0,658256180311608
0,63669259537146
-1,01642570211159
-0,125735933100112
0,76426519729186
0,295910397783659
-0,943636124004851
-0,206124650410623
0,687445263754055
-0,615481598200325
0,372451044721054
-0,25371686182135
0,359097406562414
0,703305936188177
-0,31963019408953
-0,958045802563032
-0,930620614020286
0,038116191971402
-0,687819330170655
0,626052723997333
0,39045017019714
0,233884425372524
0,354882473241844
-0,297747414561204
-0,326530533826608
0,527036451672318
-0,960740043505062
-0,0116860182590954
-0,777850800601752
-0,562331291453691
-0,931930173960571
0,811147376684087
0,322768775815188
0,736804968201359
0,102409390036033
-0,582774832225939
-0,681457616771456
0,510297308109505
-0,800579092936385
-0,323031884783044
0,231700720202286
0,648490627691789
-0,61260090388913
0,483690269484589
-0,143561467634295
-0,0896046448367755
-0,954178960373077
0,375562174788568
0,84424060173853
-0,419710150854607
-0,180682836185207
0,525977338968349
0,788015956159477
-0,112524721634267
-0,0957337763905637
-1,13582729469969
-0,331503980245078
0,304634543476053
0,828442894708991
0,981548034177335
0,321930852940579
0,238706148460589
-0,5447168625155
0,528582473740049
-0,281837066544662
0,553715268281354
0,732243985824285
0,355565177290863
-0,336285718057365
-0,775597824742213
0,723631963199904
-0,436380687665457
-0,24166457351508
-0,0918351482490505
-0,958661082200465
-1,01928149512939
-0,0493207965252478
0,781249331320513
0,942459617793244
0,612797273407109
0,183943233401572
-0,275965047949166
0,0300005640487882
0,94395714192852
0,71776624599084
-0,467165761499393
-0,895316246816335
-0,950590702164445
0,230608108028473
0,0772387447126138
0,773407258630245
-0,187249645758243
0,493840841253205
-0,942771896400847
0,894708403799165
-0,482677382938599
-0,0802729753457682
-0,39511288738905
-0,285684566157605
0,613423367237166
0,555843226140337
-0,14155498288033
0,124199661784565
0,399251177014923
-0,167934190699553
0,898727785601359
-0,444517599818363
-0,491695955469195
-0,130541964769646
0,000377492923106489
-0,333470135693223
4,43034116676981E-05
0,509488328339649
-0,846024598654521
-0,0512494229721496
-0,475277721452623
0,549297897062155
-0,185228400994444
0,98963294229966
-0,844463106180786
0,447054151110291
0,667031846535999
-0,430796860738157
0,292050093615806
-0,555142574122725
-0,22401045445738
0,303994498888991
-0,242939407769563
0,265679069597507
0,841824957202722
-0,178049848496559
-0,338614229423656
0,191706746131788
0,000728022832284016
-0,673128774096514
-0,666594913662776
0,906256696736736
0,967215727552942
-0,0944374860623722
0,538928306559529
-0,941016060622973
0,422848888134393
0,514082767807001
-0,774319719929664
-0,543248537009175
-0,247523297009444
0,366225060880488
0,128033902157106
0,568389050686012
0,163257550068843
-0,303082390709344
-1,08202697096999
0,0392568843121953
-0,749701234088984
0,699706399229809
0,419072795775201
-0,597133200876717
0,542145254734193
-0,143182605908039
-0,845166653063032
-0,465040049174473
0,973730177185273
0,364541541426487
-0,0244948712280226
0,654717327869369
-0,66438532613765
0,548591852869745
-0,156589945076052
0,568681059766776
-0,535559228736126
-0,00900207412781027
0,726119293543312
0,89566121916238
-0,601651040944108
-0,564260321575368
1,06785289872164
-0,846545640251619
-0,453229076696386
-0,220938267101177
0,65506808873994
0,218960916047462
-1,02005147921003
0,239032754688902
0,867911336784498
0,161616647954508
-0,238518827825228
0,187346717470299
-0,12569417753664
-0,302213664343436
-0,606179911406392
-1,22922302106594
-0,311571044573914
0,230048270637169
-0,324235898268548
0,580827619288266
-0,741575771670073
-0,43553634996846
-0,77246605088907
-0,817353686864636
-0,54051187192663
0,138953236125645
-0,0866927719796396
1,08402395974582
0,0813095531448922
-0,317774548932683
0,311817082672877
-0,940110824074521
-0,34813177077182
0,658719021575841
-0,385946097703233
0,421040206329369
-0,761161966626045
-0,985756275879945
-0,0440984689439112
-0,966043821815161
0,351966722613707
-0,281200111261158
-0,448581284377666
-0,135484767209183
-0,0497220694745518
-1,00712627517117
-0,109994587201675
0,411219708774119
-0,614091881028577
-0,0886354283969001
-0,767786074996427
-1,09021583272037
-0,322599028409427
0,321984166194014
-0,200237898555499
-1,20638154503215
0,989517488717283
-0,291264398300222
-0,826820183479102
0,757275416716161
-0,321812173183883
-0,309829813365907
0,685258565617102
-0,654692552813538
-0,0452179942570657
0,0102776635752775
-0,243153415324261
-0,203987006198132
-0,974969389337937
0,0633323519062687
-0,255298951395035
0,0154074657761759
-0,607319089787688
0,504072616525237
-0,959005669056517
0,196470936339848
1,14367284033818
-0,994083466936465
0,112303641727327
-1,04469164573951
0,722677282024195
0,775019583524922
-0,454009842252672
1,15013225864847
0,861973737120857
-0,622959362470579
0,193169209478694
-0,765235268389882
2,34174061463229E-05
-0,113399818719399
0,516815259557853
0,51914155940676
-0,595144539748363
-0,185676446469248
0,396010027815868
-0,630679747593514
-0,0984584810081923
-0,0770174165588548
0,292370348852092
-0,711707470193888
0,760356648405025
-0,679960693012963
0,133711744350649
0,626262181351112
1,0157255454753
0,779041512335959
-0,788791503160863
0,0754943344530949
-0,105764168088668
0,334142821579097
-0,809830390904308
0,953931476431288
0,639964270830672
-0,839407485258347
-1,17531586591642
-0,263866636002362
0,935729614408863
0,434236972152326
-0,979517291392169
-0,566316282491826
0,994225101780582
-0,701217902882043
-1,1363249122846
0,926058697026045
0,242863304208041
0,112920794805619
-0,341912736603652
-0,369331242269383
0,895353152959572
0,795462622903705
-0,697819734061781
0,262290667386465
-0,173738621827855
-0,371984130022152
-0,665866923840535
0,316366422185198
-0,603808278749628
0,364520940858235
0,621045479482062
-0,76929694243447
-0,665855459458202
-0,924745374855213
0,152906057309936
0,36661254981932
-0,625759494002728
0,921995235911642
0,887891574768282
-0,889250264430153
-0,127459813166754
-0,250281082557618
-0,222362012322813
-0,0103495787477639
-0,0733690412850125
-0,414276093124372
-0,47275145111867
0,474783058427312
0,76216984274547
0,28880971674473
-0,886209122783167
-0,459020238372694
-0,125766003594114
0,225832474143103
0,324126687576767
1,01140481261129
-0,226158137012791
0,521928024926078
0,0171367312849497
-0,0950467936654253
0,779911828424349
-0,51150800748551
-0,228379491408039
-0,761274875970296
0,865943017262178
0,7152119636621
-0,832274060665052
0,723687361678962
0,183240239978228
-0,189922680406935
0,624408617412006
0,362037550414527
0,620061506985631
-0,461384608513117
1,03695993908503
0,012093897830062
-0,324010008867792
0,619559511197992
-0,728616019826679
-0,991800362459799
-0,736092092707161
-0,114903290948474
0,516834078734075
0,0139788099317881
0,338406386212243
0,0842551215968091
0,347824142827028
-0,27302062596248
-0,202041419891024
-0,209202019988308
-0,813670102920189
-0,754973064494514
-0,0476129209458417
-0,385542752300783
-0,466643236302981
-0,604529081837334
-1,19165711893144
-0,580888714748286
-0,0742069617326132
0,388424209401292
-0,748552137958026
-0,556397326352007
-0,66187901386384
0,0282879042372573
0,512743504606477
-0,367785023145503
0,200125274783423
-0,723159285817427
0,659275176254241
-0,914755040441318
0,533870480453687
1,01284564296934
0,15837992791551
-0,142100337003486
0,13215590557694
-0,17743503354778
-0,123679403066313
0,381264602576089
0,0721611266356132
-0,970193021699941
-0,591840765307364
0,218372413723628
0,0823182522799437
-0,718370038301752
-0,311828781209512
-0,00924817069851313
-0,568697394611076
-0,0437187758526553
-0,788361055466358
0,77859292520959
0,319483591416957
-0,859200182753641
-0,854696198856329
0,020409793995881
0,432892853415297
0,372714802264456
-0,337139906282561
-0,720377683977552
0,296798199606785
-0,41654321278897
-0,668666601262616
0,0578095824296185
0,379269666980696
-0,587972415614798
0,691908082252999
-0,547310929010592
0,620983628736461
0,763590885552364
0,701740256561749
0,753332752326208
0,283830310067314
-0,510241707731495
0,5907537247375
-0,288162484190829
-0,111244697457448
0,300496085205492
0,750705741604756
-0,806950550475078
-0,419151953688513
0,045980020956674
-0,956406997983746
-0,831515028936311
-0,571742483066081
0,892051883939488
0,235419779855313
0,349559784655046
0,229669962948659
-0,692832277933577
0,413167216356404
0,680628067113134
-0,675646654279633
-0,261230160140069
-0,509981558613433
-0,3632425670004
-1,04324259728232
0,0876366651403428
0,561728236065039
-0,997618477446557
-0,578088258274011
-0,813829366027417
0,509442887765372
-0,178992535461277
-0,14020976836143
-0,384544313338972
-0,510370725243011
-0,503909253318385
-0,293841871175817
0,245637971302237
0,788534991517202
-0,714007120533253
0,34085651507226
-0,55777158274305
1,04611127703939
-0,398490398392697
-0,919515056233788
-0,685845545361376
-0,145396963993329
1,10103455726807
0,479963617189765
-0,459193572652548
0,144029630746996
0,134808978331376
-0,751825581878454
-1,04185680488319
0,418736308643306
-0,494159232947233
-1,3864305076097
-0,42461966882069
-0,422988643310737
-1,19030036181291
0,871532467517531
0,879385954798157
1,01429735612678
-0,649335453736881
0,294476953500518
1,01563119128926
0,212428998204122
0,488242513607646
0,2480470402655
-0,924850077975802
-0,31114438468217
-0,709903138177753
-0,532262890045162
0,328641304203786
-0,326403445028636
0,655330066248779
-0,336030304241132
0,619425746039711
-0,601689430152036
0,820915735608675
-0,847473933473684
0,225480559216491
-0,433231537179414
1,04922673341952
0,114936150437647
-0,464337521694209
-0,533369642823143
-0,0586980237316753
0,102970983598825
0,805417685677527
-0,457910179564477
0,971319174741536
-0,891577566246148
0,488433627149534
-0,430197226940295
0,730536762072296
-0,689086656859148
0,595298687436243
0,0841207615103106
-0,611622142002954
0,0658382633604085
-0,167365147734673
-0,388327586879244
-0,00274760714037548
0,984568419724803
0,126266214663985
-0,0322718209421693
0,0252394192770948
-0,925256685210334
0,780496946335125
0,711170888360571
-0,900804037653587
-0,794375794118279
-0,0837184913489292
1,01963332242951
-0,753885126529862
-0,0914155048107381
-1,0144504365328
0,416754919546375
0,225466639894156
0,326751194426768
-0,429306179438791
-0,355771075257831
0,518942086319702
0,956507701013013
-0,334903681961797
0,503499046833787
-0,502854170356897
0,00767548031724747
-0,622764232685422
0,325945171836369
0,0231098004023509
0,0265853561558967
-0,962380901001409
0,0365432460907203
0,21523792791935
-0,359604512258446
0,744964070718534
0,804404353739899
0,828769136149163
0,81113692278078
0,139942652788233
-0,0404805630065785
0,456452367823651
0,730131566709941
-0,375688273797255
0,848186418519351
0,502973924190404
-0,883420971022356
1,0868515657387
-0,159784684694359
-0,737523452794842
-0,803205047036623
0,639890265875611
0,508712571627208
-1,0109980745925
-0,68061839436776
-0,23462111026798
0,391472479406108
0,378268360592674
0,614828313030208
-0,521776099363858
-0,945296331211475
0,741361115043972
-0,640119171413259
-0,160550682140499
0,197059564621801
-0,755926743432213
0,879662179269679
-0,560126712157221
0,427383898780109
-0,193253132444402
-0,825033130802673
0,424881725384713
0,740631592258882
1,01571571714914
0,88546897751131
0,17189712503887
0,782181695739014
0,51440295508673
-0,243000455204076
0,74892079714861
-0,41271249344399
0,146257910150771
0,453398320673757
-0,0904243674476414
-0,213047763292342
0,198550681999551
-0,251785757228837
-0,299522671100162
0,192016194948379
0,919717169490493
-0,415278221283946
-0,586395453048982
-0,723955210760002
0,143965541108298
0,205498430612206
0,0546579534021793
0,132832192455918
-0,0097507306527746
0,250339825742231
0,665301778553263
0,803012023209102
0,57826224566224
-0,564323273082158
0,729297177029724
-0,931082712415228
-0,119358987046012
0,826570052037869
0,338844187505622
-0,661631048647092
0,0360270572060836
0,204861336553755
0,641096660795038
-0,363502756903135
0,83137412352724
0,694505256073341
-0,171733457936058
-0,801085612081647
0,427381960056727
-0,993419698228774
0,945748863016469
0,495463932054602
0,181756006206037
0,328994117509622
0,57963380689352
-0,54632033146719
0,879533804824227
0,155420510500931
-0,40070914728684
-0,167514592756046
-0,191027656332267
-0,894510419409116
-0,312103166388008
-0,756415002217333
0,165156665646082
0,864153111832231
-0,0665632595173773
-0,356766480859972
0,678007990935791
-0,140172217390403
0,876390961127689
0,312298791808242
0,408631251773912
-0,677646419941453
-0,850067165259739
-0,268499743383141
0,0235252163448604
0,766948923277865
-0,498411584490069
0,296151048399906
-0,665854572777251
-0,23712830957841
0,730511323070601
0,0493400317172283
0,511437939616831
-1,11543854169441
-0,364963459646423
-0,486066755973993
-0,124743743879621
0,264283596351279
-1,10617664175589
0,68119455742615
-0,0816615851644098
-0,472789947675036
0,561754714117693
0,217936887253085
-0,743259741852688
0,489801668163034
0,741935375005947
0,820874183271947
-0,501370338482673
-0,760538544275734
-0,55611687920579
-0,348643206754011
-1,08076342194645
-0,402127686003928
-1,08833104457665
-0,188726933289196
0,306588968496263
-0,0476970837943208
0,521147083376009
-0,889637578544136
-0,358719889278689
0,242460223136373
-0,141140169759823
1,13265162679813
-0,492434907070511
0,741014616763217
-0,358711183395092
-0,0699367346617877
0,261568259999627
-0,015723639475082
0,708681631255122
-0,331301414708773
-0,187307614276978
-0,881902408835479
-0,720013784069891
-0,256868046166905
-0,26811680204521
0,158738104479502
-0,684324108836925
0,527361834495523
-0,748017213466279
-0,3913151399068
-0,246397968890481
-1,07164091327716
-0,620008850931332
0,312325110051408
-0,137274773454087
-0,33791595027034
-0,866453266009845
0,965268235989122
-0,0916113065752078
-0,843616125127039
0,585211052747717
-0,94376403880286
0,16680020078673
0,720886132129828
-0,835721411515755
0,536013671439182
-0,367302525819591
-0,183998374248755
-0,38695567017221
-0,315219358423383
-0,233242548780281
0,867696995263665
-0,41429014649338
0,829656207765888
0,788364185480783
0,929658080122913
-0,690448484669925
0,362324522655432
-1,03152022573259
-0,809226869077353
-0,681649982803669
-1,22451358524883
0,640104240271264
-0,770539881388282
-0,571110006765169
-0,67762807928706
0,534593788261492
0,183533509610683
-0,00585588104135888
-1,04023307584723
-0,0366661548640278
0,280880257866453
0,574971305629673
0,164403089664606
-0,195996992419022
-0,489410881934555
0,210817748538659
-0,396896521880432
-0,0713616683018252
0,296789397608553
-0,725649653858244
0,525170200853622
-0,338189367249023
0,455416465234195
0,84526639763766
-0,0815176706675861
0,435380896520941
-0,602785791925295
0,213722470244224
0,141899372962386
-0,341940857568328
-0,294588209893474
0,519386716687877
-0,0509567841663873
0,551610710614903
0,45963038818526
-0,618465226617294
-0,115077462623432
0,18979460412855
0,787946743000783
-1,20382529130693
0,551123532367008
0,539673322513952
-0,77724949629984
0,957605620699427
-0,124048350753804
-0,838194425628605
-0,0504002555262142
-0,364663190076644
0,206583997566349
-0,257950502203114
0,151451444960876
-0,355477036823464
-0,380247970009185
0,184928085726492
0,280220006618354
0,145647202852997
-0,459506533574221
-0,706783026647693
0,672630205334068
0,466711414585766
0,0282833009287377
1,07987367947253
0,949249978997035
0,54778724010304
0,657074009615512
0,395123440256003
-0,429642150951925
0,852613855567232
0,702663144174528
-0,674111035041949
1,09192230571428
0,530236821749175
0,251969863910614
-0,0886126122061578
0,514089961048592
0,989825637659882
-0,591759850930208
0,612927404927088
-0,27665736669665
-0,572965645950606
-0,585414379802431
0,851719538328153
-0,890256010232126
-1,03322010728619
-0,207176478572876
-0,752202763189989
-0,176368455436356
0,253083760920441
-0,345650468474232
-0,515818174729358
0,786073901566537
-0,116544993002166
0,154703670528515
-0,400826248323146
-0,0864760502755963
0,307056339385759
0,956157064877887
-0,290897908491824
-0,808313874512484
0,704489085533534
0,583223958850874
-0,0838063733837359
0,38560750977887
-0,268537047933804
0,0218592999044054
-0,652124436873081
0,327522905293916
0,753390306442681
-0,568530174168019
0,133586392619796
-0,521688311063023
-0,252318952887626
0,881929807925278
0,047134322469013
-0,177313841382673
0,387964739772035
0,930853687251693
1,0343869842527
-0,211429273128148
0,420008973926925
-0,377532215792048
0,360497256353217
0,395531954172747
0,0147084756851745
-0,392882065444831
0,108019070773373
-0,697553775648442
-0,319090323732776
0,935096149483837
0,585216641683307
-0,980054391731622
0,704601567032468
0,411650323999198
-0,303354732129236
0,122404039131667
0,357481304515411
-0,685339269197084
0,488115467870565
0,0903467294407076
-0,185061064830345
0,155232235583969
-0,0293823170807591
-0,0742829263793875
0,317847729866805
0,937123567362161
0,132053407928679
0,173086422823731
0,999781417192579
0,893263267279971
0,775912939021469
0,804338580737736
0,847353981098774
-0,922697258820271
-0,238796771029636
0,208488828963506
-0,896333360766219
0,671048628742473
-0,643821471110311
-0,926536616396606
0,848409509511423
0,739062550929307
-0,395059815733704
0,935845479271854
-0,0997318400009113
0,338165105332393
-0,0809232673866355
0,239996043607714
0,0935038169331528
-0,882922117237314
0,437985867874824
-0,0874175272779698
-0,76280098420565
-0,0642646282178965
0,821885406266879
-0,744410906414562
0,537283444147611
-0,517617131940402
-1,1678776554593
0,265383458370269
0,415887797630124
0,959521561144903
-0,756455011396388
-0,160410969458469
-0,748701940980073
0,876801844669958
-0,833570427887499
0,69049461354214
-0,30023184487968
0,404663231159329
0,0371630520471143
0,655888785179954
1,06292751439624
0,457792172337469
0,35453376620597
-0,237605392172197
-0,449482014552048
-0,0655000999101878
-0,924733521824714
-0,761126289749862
0,0963690395727018
0,769399418157726
-0,808863583762589
0,892830168838204
-0,329176699243494
-0,176824699747515
0,543368952264809
-0,00490595885038037
-0,869569191563693
-0,493794693072327
0,570799148320182
0,701833114647798
0,651845587586478
0,270449509320089
-0,370908210783609
0,783433216029634
0,48071452481803
0,757135682137859
0,727391653904124
0,0121417710953142
0,0686287050539053
0,196383533935366
-0,291175535066397
0,489934277676826
0,14830367201469
0,564882968649834
0,00609341807281152
-0,194321848656218
0,494380851672434
-0,087332532900883
0,646819020518155
-0,407000211375319
-0,679682960330523
0,97707283473052
0,962722752026247
0,67447297169054
0,750163662485877
-0,530935302005263
-0,768566413788308
0,37054885175902
-0,759204205105737
0,0105222373315252
0,493983745764785
-0,864663840526507
0,997255777199966
0,307599921564517
-0,824806263453235
-0,254345330096373
-0,01863364984217
0,328167317554882
0,724606035133702
-0,227727854062312
-0,120479759072538
0,312673199228584
-0,192285098142101
1,14398037718558
-0,0232119623480572
-0,308666626206622
-0,501916938154309
0,511306343836208
0,560092051194019
-0,272356370440072
0,147849199745229
0,424555771262181
-0,169119114964792
-0,0465066537161293
0,23914882149007
0,484471574635988
0,701387080346732
-0,174170769251412
-0,7736018497659
0,214002281485811
0,875800261160204
-0,519896937708887
-0,177197366373224
0,300705869505999
0,571528891037479
-0,890453324423661
0,466688618454186
0,964139947219864
0,528307182557242
-0,667360133074948
-0,912767670872728
-0,86364461712095
0,421697514122181
-0,110706932847059
0,489328833911082
0,414537812513104
-0,0265096852023084
-1,02163758410551
-0,440711327776879
0,0777313440285202
0,770443351630735
0,12672636995568
0,582866470957739
0,632589833542769
0,807469947993212
-0,782456675676917
0,268140828568179
0,0331296959880067
1,02325990970939
-0,521700361908759
0,336096911787095
0,85442278233768
0,32930822624751
-0,631947669537992
0,145622735173883
-0,229404955266738
-0,800298454707364
0,16318599282706
-0,813221208062255
-0,45397003656514
0,126701195470974
-0,152843680892857
0,60180468916891
0,413384883542587
-0,40614753347881
0,277346145540426
0,780055753389408
-1,01160850194567
0,476498898664918
0,993590239123291
-0,379803975409182
0,366140947356061
-0,657311618838574
0,0105375290783179
0,168989160021744
-0,399401847098093
-0,153981790675104
0,230388579944584
-0,950268087674517
0,450095956611729
0,233005184460389
-0,389734304604787
0,857528467049964
0,123284324780912
0,0135502800433046
-0,740736544074486
-0,127620617792496
-0,0319524880059264
0,697583087209983
-0,302194132685211
0,112958558453049
0,817248234016834
0,767482131953982
-0,957352817651599
1,01161765971614
-0,0209650017932942
0,546043306504008
-0,837846190979254
-0,00966840151836773
-0,447591318764496
-0,474964353337749
0,279032156031848
0,586147261957054
-1,03613756755436
0,82520215788802
0,970997261972677
0,40131226044996
-0,740575376333368
0,214928243530507
-0,686295465006071
0,776227463973758
0,0807347745691085
-0,264449332960754
-0,256549494531866
0,0406291062333522
-0,0945423946586766
0,0871212417612756
-0,504801882055799
-0,368613820091001
-0,770943417152229
-0,764001451636324
-0,00492237712111702
-0,952163819012133
-0,298764545173948
-0,131867904328982
-0,114132950253026
0,358509158850323
-0,449353434410996
0,03942136246869
-0,664504274645731
-0,227746840777352
-0,257954313144478
-0,815989528309191
0,417128480824192
-0,0546302562138851
-1,14634286894503
-0,117715058929282
0,764055479021367
0,347566429499665
0,0416018298356626
-0,118088102513972
-0,425597318544295
0,746710246661774
-0,159606579473598
-0,0525043390144878
-1,00017103940798
-0,361245809405632
0,198704232107522
-0,333722160553277
0,443173501409336
-0,923148650691278
-0,0953223182389163
0,764264619466642
-0,548233063601367
0,912223418401186
0,660187660934034
-0,153855482639281
0,0247967371624183
0,165024219503602
-0,204911744338226
-0,508253037646452
0,0300796231217655
0,204759270801841
-0,0248973077944477
0,442760327787873
0,457746166655127
-0,327444535485687
0,519460522240655
0,916172995620446
0,258462078447477
0,805862123134594
0,168588363094375
0,228654801754161
0,33365303631935
0,493384360290016
0,842506049181138
0,0895161621824169
0,167800299841788
0,82322760481096
-0,269813455902937
-0,643135814264895
-0,441742129868212
0,465455222460366
0,835933595778568
-0,72135104422954
-1,06072621519881
-0,105530843225701
0,614394461762533
0,575365686420037
0,317689004072237
0,0161133382190815
0,928219139300048
-0,327986822691824
-0,696681844858537
-0,281455144701601
0,6631935067363
0,274528749121606
-0,150596324378478
0,559276611225687
0,31877991148693
0,481685805827775
0,161549844911468
0,167318636246256
0,554398449046461
0,687831896663998
-0,015734994643842
0,648247826590707
-0,508053252232124
0,0730635509919767
-1,00222381985463
-0,453345388325049
0,800166769318575
0,0695647350521601
-0,385427200393596
-0,282692319683324
0,90733734495299
0,540358431421164
0,621223827558758
-0,420439634891837
0,461712448381266
-0,569019310151221
0,114675424951205
0,842987179006421
-0,569884927822427
-0,889522277311278
0,7774837157339
-0,480050292956281
0,0317522254183955
-0,645781349969664
0,560157503135285
-0,244653338005676
-0,700919474128389
0,861369005431935
-0,492358351475258
0,169116135798908
0,213644644527154
0,338248976358523
0,875824809953942
-0,74419624593915
0,159607910354144
-0,880219832013944
-0,424097021282935
-0,564849633908965
0,444753364786135
-0,401366306588325
0,261514463292268
-0,360996293646065
-0,888542886049568
0,290799344693657
-0,0496094472070664
-1,14901915259268
0,852568732584001
-0,681656020022225
-1,06079843310059
0,421138872797008
-0,905254619884191
0,391478399796185
-0,224719029164909
0,325833002731335
0,568292501353017
-0,567462364406752
-0,0807736655971767
0,793069300940374
0,0174191567101561
0,247688996774
-0,766006353437034
-0,696514801808261
-0,505597857381258
0,353137945136405
0,697851217965798
-0,384596591939562
0,574161867818999
0,584065711313882
0,150958335849048
0,250671128334244
0,788010440791256
-0,426607250555439
-0,714182791259683
0,579019998804922
-0,183681044661043
-0,0632779295502637
-0,539589236683912
0,341888547141316
0,714203916755763
0,56865264455889
0,05006960738709
0,780997909426053
0,695599557235423
0,422252714139107
-0,165542016020407
0,64682000977945
-0,539850915175654
-0,40345312855501
-0,657034022584959
-0,170630951284094
0,68670404231377
-0,434160006209054
0,284551591822561
-0,819441865609809
-0,693344848817338
0,109910945543238
-0,592677895539709
-0,442037673544859
0,970591266567698
-0,751307723358878
-0,320477453793383
-0,665002432266904
0,205388075991174
-0,299597641143938
-0,146130831365163
0,858957102104547
0,314243029120385
0,112666362560676
-0,411500021467677
-0,399784493059916
-1,02353902682634
0,437703258947409
0,900363395108397
0,763462671949445
-0,395877359616558
-0,427601536187867
-0,756421550144992
-0,00135188019686364
-0,235244182443261
0,522107227458
-0,934891736302652
-0,160758484851382
0,338229513124285
-0,658286275943104
0,881014900500069
0,298670812372446
0,547019661566344
-1,19244555166718
0,517040242392425
0,753229583021296
-1,06946164799574
0,634495751837501
0,202202378490244
0,599846893052992
0,0930528901494116
-0,302563657523129
0,0892447651140426
-0,315515966532685
-0,725855308809316
0,0247299563535309
-0,577649417970899
0,522760945027816
0,93868226138417
0,250514246211666
-0,482489633986089
-1,12407022003284
-0,416371044670048
0,298398839307129
0,883250332254175
0,539821229902208
-0,360752082184938
0,188566011493617
0,733168674395036
-1,06596422666165
-1,3096952076462
0,372613316959121
0,0127533105309527
-0,445616270786961
0,173358083774734
1,00794035034706
-0,614800591330395
0,257963255996899
0,759004353659398
-0,269177431117517
-0,623022196542941
-1,15010906439126
-0,78857931172576
-0,389733257662444
-0,466177287922135
0,929783501585628
1,38401399033384
0,620975698957291
0,0611971158510775
0,650457787365373
0,420727588392485
-0,141374756979541
0,0164063527921889
0,79278124343098
0,815946575496158
0,38923768676116
-0,040078997913538
0,874238549470118
-0,557777053069151
0,623236166665772
0,0511781701192943
0,238763024956016
0,858276032756261
0,281380508638327
0,574701718362339
0,391502136222273
0,820930749650253
-0,977790718811269
0,48820076769596
-0,306634095505859
-0,399451199711506
0,475348648326697
0,525545566692294
0,10643331900728
-0,269795359359484
-0,502348056956476
-0,904667431842506
-0,848355221292848
-0,195218493143423
-0,948678841658436
0,805142945084501
-0,111539529484757
-0,352194786251344
-0,676556394668428
-0,455670182120808
0,250047976365304
-0,492097996935011
0,010077458086803
0,0627222888616985
0,782960817641204
-0,161289143370627
-0,33420543836013
-0,14829895902038
-0,97512481291675
0,944196760679567
0,194219575444692
-0,685546851736894
-0,136796316888371
-0,309924538066388
0,157289744943378
0,74671836255915
0,768986995244585
-0,564928409980551
-1,27550500229414
0,146749531682349
-1,2074482888419
0,285730947508754
0,99758514236971
0,0345919426735861
0,107529540092016
0,29908287263184
-0,72098972365996
-0,149226523024608
-0,653637331773315
0,777735421400849
-0,797010998646005
-0,572342050145992
0,645744045727886
-0,181770158219622
-0,881108438401106
0,0227230876304017
-0,506408480757121
0,188963110731487
0,629930834674029
0,861089307332764
-0,793804555070159
-0,215982896795371
0,270902153033613
0,360537556712986
0,405593533519966
-0,802075001637717
0,163055023838764
0,567926571263107
0,616317332545571
-0,905610562488205
0,874899753853939
-0,259093597416302
-0,295829659541451
0,548599857000499
-0,568296588792825
0,94823683137046
-0,624069486792895
0,746439056028653
1,00747193976821
-0,599772118120284
-0,615645710592258
0,636705999778435
-0,402273506753096
-0,769565377359666
0,600999193558411
-0,43332181320362
-0,187115976916145
-0,949820419544504
-0,686882041899373
-0,710896755708789
0,252694489855564
-0,159379589699953
-0,159869771820308
-0,836590323463466
-0,0979240687011419
0,410973054484417
0,687670101312596
-0,322864282149503
0,654104479069424
-0,0345067659217424
0,998061065957836
0,231192919134642
0,189796296546923
-0,78122057750856
0,929819444387873
0,608196706477134
-1,07761046678471
0,910794083744187
-0,896873881458249
-0,449341975958547
-0,414902551379508
-0,0303696847898006
0,206168154719077
0,19897246185738
0,0283661029943413
-0,849134760631805
0,916014088858971
0,142507922656243
0,415484353035927
-0,369211786294771
0,321067431424788
0,0564457409093241
-0,242852864696415
0,349165631894521
-0,105380642437787
-0,0732378425324837
1,00621340612447
-1,01401368485847
-0,303877411832377
0,109497183862971
-1,15023881121097
1,13685129962576
-1,23042797434808
0,395130872445891
-0,263135319354437
0,455350689214643
-0,391276323847609
-0,210181030260789
-0,609047750332989
-0,683836641603294
-0,530802771327559
-0,367680268185305
0,88508337893647
0,865586125133608
0,908075718875663
-0,664241481444059
0,817965223648383
0,812194179024287
-0,283923830482233
-0,139030394270072
0,457825517709637
-0,631874633665465
0,403845881731987
0,214676761697686
0,217262663470115
-0,496206164046094
-0,973601092299736
1,28230835640698
0,611437738546276
-0,431757026693852
0,892089576293243
0,854460521415645
0,336596208675436
-0,18349445121763
-0,236458638746363
-0,478519234437152
-0,184005948186616
-0,947465915742074
-0,95371722065409
-0,6841342023703
0,823003827466575
0,412021461786769
-0,068083483630158
0,634821522470025
-0,897108085185004
-0,600847948543886
0,221039141850426
0,30445500261789
0,238493003313418
-0,318129352121236
0,319501827488331
-1,53206628624561
0,791397274451072
-0,83201921557957
0,763153567595384
0,597800642311958
-0,434606021395793
0,172143139466113
0,570548904509529
0,53452491794859
-0,0446408634312729
-1,1770432767403
0,512078889635114
0,526396863534039
-0,450505435157214
-0,358416618779567
0,463949844047371
-0,0963301754438455
0,639293295162111
0,613559171155666
0,375416584099435
0,486556110692748
0,0589255399484893
-0,501629874299688
-0,598124926484835
-1,12052611983119
0,349740703217648
-0,923937024334008
-0,188837071165156
-0,0982125770454237
0,350707666896665
-0,231023184503761
-0,559774424480063
-0,628719219078834
0,165988599099834
0,702120364121748
-0,842217401355503
-0,0343052244627997
0,752551370212485
0,000105290539365367
-0,538932628062418
1,14422878180169
-0,523237772148332
-0,446117110194113
0,0478618374019067
0,375265228191269
1,01360613328813
0,499375277423912
-0,270456231558881
0,52332863559756
-0,101423348424476
-0,183430779339203
1,11492231481579
1,2607360998945
0,131041260045791
0,912165273375835
-0,279393050920502
-0,0788307430618079
0,689222435230817
0,460055767862491
-0,964592862099464
-0,569205746307869
-0,387869570257236
-0,611175226458293
-0,540849282386973
-0,78029344269306
0,771608916092309
-0,253270895708832
-0,735933448305939
0,0132942500342653
-0,36227357340115
-0,575238310762878
0,56213285449696
-0,652535336257465
0,221906975366914
0,80567647892362
0,150717998888219
-0,101134749123131
0,628299167394062
0,0991898133971292
-0,8284882720276
0,758446875317272
0,322911995061917
0,272948545260478
-1,06378143620299
-0,0537162199106727
0,0499174314211357
-0,259739024407598
0,483728379088236
0,261596322342988
-0,211215805254041
0,217327655530283
0,48997533702593
0,803847645718464
-0,10067680508821
0,779939672275799
0,0114527770690066
-0,854983584866354
-0,89553405164648
-0,440596876721756
0,761670091420787
0,148193881722643
0,22232621840435
0,929205435197747
-0,150486916618869
-0,590328318721444
-0,0381590942537463
0,490267618992354
-0,259487231009504
0,3751894785434
-0,158734773922382
0,95395512272185
0,166193063998638
-0,453266794279795
0,246436803618941
-0,883460211782886
0,0991644492749488
0,244471119313364
-0,624237275696683
0,556117181268125
0,25666981602161
0,0353848256270388
0,443383296847308
-0,00477231814341698
0,974473710720773
0,132145388300684
0,0919836357959527
0,634327462071397
0,437229260426067
0,332522557966688
-0,208480838346947
-0,0825193966741673
-0,252862476215928
0,0998571586490163
0,564084934204074
-0,0799042562585375
-0,171342652303381
0,370017934656999
-0,749156714478145
0,706847565282979
0,835024899986017
0,449544462942603
0,905856892540415
0,784494125804418
-0,37889665921513
0,191356322196699
-0,968104310010867
-0,246300234337388
-0,392983323100658
-0,0278117616040348
-0,259132721937127
0,67068103054169
0,935910444249537
-0,326084714981759
0,203122199810504
-0,328264369532051
0,616665095173147
-0,755319975181696
-0,959757628705485
0,599909916050954
0,246978649946871
0,221653940406205
-0,966067783038386
0,443676205551883
-0,262762331462536
1,04669860183244
0,326422537451031
-0,634898076705212
0,101270091596234
-0,829685060687577
0,411416151891744
0,750015598929732
-0,340774336775313
-0,304685624677596
0,668743288981551
0,718995053017447
0,167172641238565
0,461159178103029
-0,65565000183358
-0,0635518878412955
0,0407416448371589
-0,706340651704113
0,0621556088747621
-0,314279531331499
-0,294255649569359
-0,000492882339329784
0,19917784178182
-0,64838608422126
0,644522921239311
-0,173933410998404
0,418983308747255
-0,467730194160414
0,340053264884601
-0,0811107500814153
-0,655034196560909
-0,362090918854658
0,417793858359142
-0,633060964930292
0,247494742723126
-0,316147246071994
0,769565761954894
-0,927681538776612
0,743499539525363
-0,449800933503002
0,362610692331197
-0,0562049188207523
-0,0833202790860194
0,0261184577848559
-0,243201444838431
0,580944367200516
0,424429424665846
-0,77948458247808
0,745832015994637
0,112082426822971
0,504712537501157
0,188151976066315
0,735390489523996
-1,05277556394629
-0,67214423552495
-0,0712338005124968
-0,9011600513979
0,395420132343066
-0,555075622968386
-0,120105493315564
-0,607394752907017
0,184408830949196
-0,669955359413316
-0,0502102297106807
0,569172841600355
-0,442628437017705
-0,219061529485178
-0,629790597706987
-0,494034254354151
-0,633493529900667
0,702786048011755
-0,140717311580252
-0,592138841529428
0,880740796858964
-0,434669835120352
-0,900474399191104
0,655173963706556
-0,469076964343125
-0,307255072801107
0,643646678050243
-0,990273277788328
0,188202051517808
-0,0988801950899833
-0,291866900137977
-0,198355763662438
-0,406579708915339
0,0892094344823532
-0,0880050617295253
-0,176916556980888
-0,989524200256358
0,323477998511923
-0,551184206611346
0,118655924828957
0,675964174282363
-0,969061927293988
0,134382144212484
-0,913211087367113
0,518516088767884
0,440762993829477
-0,132736657687994
0,988591449348653
0,766400047165701
-0,514027358657642
0,129073341016336
-0,488971034402238
-0,177412080139386
-0,223369066162764
1,04831579322992
0,698456666633922
-0,437388668261723
0,0619188593801629
0,535496661843707
0,192850588383324
-0,260134584244916
-0,0366206820814242
0,0287938240705013
-0,681224916823252
0,606476809428415
-0,689633519243448
0,211013101676493
0,242404516222367
0,970392315348831
0,501422623090688
-0,697495435387211
-0,215884620426576
0,528317123406323
0,536385686581598
-0,526227060459826
0,777700936780733
0,784133005967136
-0,997361706385488
-0,887581426050765
-0,00106773435530414
1,00560036170277
0,810920427707751
-1,02777970265285
-0,330341996660767
0,967967607196751
-0,536881832741071
-0,954826135628503
0,758522669799457
-0,00405882245364904
0,250491313393343
-0,442903470047518
-0,160245841568433
0,955569344555865
0,778879886281131
-0,349773668735349
0,00470491222345795
-0,362618118935266
-0,408937177289491
-0,644948988257613
0,55942122050523
-0,654437435135194
0,42538753691139
0,71251314412009
-0,567016948811485
-0,596464123028822
-0,893897149607244
0,0425716875893072
0,197137630868941
-0,771306195042415
0,91476840566254
1,1387842809396
-0,855716182718699
-0,0478401573815696
-0,333267743699105
-0,0899675547685104
-0,0286104544428878
-0,228596602949587
-0,306554804619713
-0,507613875673904
0,440069429196892
0,97665527009993
0,357772121894314
-0,823054237174146
-0,452000283518627
-0,0793908202372257
0,320944898721628
0,264393319033269
1,01203646452458
0,0312431600360468
0,46904056018606
0,093479736944094
0,0614340425468606
0,73285019583108
-0,394134384592448
-0,386065969825835
-0,638421363582247
0,826069928027224
0,529140020484995
-0,977843494759546
0,823602612221547
-0,0420445265067267
-0,150728604010007
0,693375115841439
0,468845570888798
0,431280075740617
-0,315617778972055
0,947066474519359
-0,0260457723243863
-0,265310895042258
0,302667181230458
-0,76032884565044
-0,646767278475017
-0,518129024833884
0,204716862171253
0,604154904016789
-0,214657364567548
0,833157096719101
0,385560867421811
0,412080799159292
-0,0809508712028347
-0,261339795501548
0,143846375240799
-0,747944643809179
-0,317549619768358
-0,179368134477673
-0,108984954401667
-0,614881947683036
-0,770463572708825
-0,950285682284361
-0,490635402904855
0,317951680272685
0,214675434386938
-0,416388048155802
-0,250106901205814
-0,616586952291433
0,517246448656384
0,629152072268006
-0,244357665419665
0,00186445135916011
-0,719277119466733
0,334026584118613
-0,786041667046426
0,330071236766211
0,600970771720373
0,271141039835372
-0,05717859860182
-0,0430279253566529
-0,27405092655597
0,0554201855838698
0,566078125173198
0,202890779364297
-0,56491463978803
-0,854428264621258
0,184708281779557
-0,0447510329019255
-0,575197371044628
-0,286920680432051
-0,166827869281829
-0,440038469821125
0,275551572262835
-0,856293360822598
0,442572500542703
-0,0734171493933539
-0,938491902120856
-1,05558412107977
0,120530796503358
0,546679973030177
0,386437118423779
-0,242870511858432
-0,688562644225662
0,222177117168835
-0,553678687223003
-0,569264850117493
0,168839077155844
0,49132839865807
-0,35289632648909
1,02037484486581
-0,433074202825366
0,467625489202358
0,786459466050885
0,824696304787299
0,578974946622058
0,274456493491364
-0,584673565756828
0,383727767907411
-0,211039837940346
0,104113246339308
0,363793704052256
0,875632484720629
-0,792794955011351
-0,561005151890275
-0,159084261289381
-0,687572289836328
-0,757752346145911
-0,652059200812556
0,764223889939661
0,224503705004172
0,227454459755218
0,435961423699024
-0,735889358543681
0,44920821813431
0,635729748048527
-0,781557093621268
-0,232949738094556
-0,669977801146378
-0,22271488045007
-0,964629975131075
-0,00460480742535511
0,481264717709257
-0,74390485080678
-0,701607452669281
-0,891103596437769
0,422527830581278
-0,251945786886201
-0,0772626438186362
-0,588144397927914
-0,600021810119257
-0,359842654019521
-0,311307030409252
0,373136538720288
0,891262940080493
-0,83326989497676
0,451345853252032
-0,586589896858944
0,956984355362044
-0,572405839370967
-0,862775760638889
-0,839417650946304
-0,257508821439701
0,946497293361031
0,513174505904637
-0,481038990083124
0,126377022418369
0,208575145904243
-0,634555090889223
-0,801117182616665
0,395516199709622
-0,391051299246808
-0,941756997002968
-0,299051590310055
-0,239036905710172
-0,915436942453123
0,942226797916817
0,633664088978148
0,919108693492718
-0,667967816197259
0,444033574054033
0,587678765304444
0,292733891274944
0,815582657705288
0,351066310075419
-0,516098381686898
-0,435709331396845
-0,995212130790855
-0,559444530215027
0,294837537718262
-0,819262245313424
0,721677137535838
-0,218934769405722
1,11618998802633
-0,419183417736356
0,734192862688059
-0,511864837601374
0,487574380251781
-0,198155817009273
0,811045251230127
-0,0343898757600258
-0,942827133001415
-0,611254423529851
-0,235905189773529
0,189904885181347
0,701573740428835
-0,240669431669018
0,907811788557613
-0,493273258729692
0,824423036989701
-0,667090374049429
0,865260504270589
-0,50802388717733
0,549248760407522
0,107889608000233
-0,332389950175976
-0,229589110893997
-0,17035489523986
-0,36263185069056
-0,104494445108769
0,936368581012586
-0,0717367925716857
-0,306298914952952
0,0708717838516534
-1,02288028159931
0,825937118202945
0,965082805073955
-0,647882100910501
-0,69571678018724
-0,0188742698295437
0,695042790943144
-0,632273796774574
-0,0932295041371137
-0,863020142945151
0,339171138347133
0,252586564186996
0,244788386747676
-0,421123996750897
-0,304089830864263
0,601970529467
0,915281816346236
-0,423074870550843
0,46004668958515
-0,429815791069641
0,022335112570941
-0,634292592124218
0,274688739575366
0,0787493060709672
-0,0511793958839892
-0,992253205381887
0,0220232115789089
0,394775470351066
-0,109121311062115
0,795190305468134
0,801237231584637
0,916480650665066
0,387217202874772
0,263452131129662
-0,319469281544795
0,61738282314212
0,826981096168797
-0,591938057037225
0,84222010108636
0,692185640200639
-0,990835678893384
0,850245625973037
-0,0933980910275719
-0,634963746066987
-0,715629538963607
0,701342807263266
0,309172774673117
-0,73553505392794
-0,787650683796173
-0,156407550602237
0,0774845884131513
0,407623787235709
0,744606071127397
-0,70285999117157
-0,95338926529487
0,822802046559311
-0,646908238705007
-0,11262839829463
0,174806329253945
-0,847532872817523
0,877075477867616
-0,54612579884112
0,454931855317391
0,139791015547152
-0,662619392663271
0,346259426959093
0,801186225713581
0,962151095805104
0,830918598370807
0,223100780878926
0,736386614666096
0,457383077491317
-0,254454443838875
0,763896989827298
-0,325304530053702
0,148358237256646
0,458524334759483
-0,0985910748687312
-0,233776677025109
0,14917458032229
-0,291640482757108
-0,258848230928144
0,149257571317515
0,969490393446784
-0,364213138245692
-0,656123566787694
-0,563760730795542
0,104608147967131
0,201065110477262
-0,056890221388223
0,104874539796269
-0,0185024068279259
0,408781246101674
0,66950189480126
0,852176782502607
0,50692262851602
-0,538117460821719
0,756170711612408
-0,920676623463625
-0,0930103136647204
0,830049229850593
0,186620043467181
-0,556855148762097
0,0535889161193832
0,274061364784646
0,705965229040041
-0,361668622135024
0,814834591216608
0,684118726312446
0,022447220023555
-0,814912611986809
0,382563519513921
-0,949404142074701
0,946632370870673
0,421118492706897
0,578444849133128
0,314111257612658
0,357778212821501
-0,453373611745756
0,832353890073989
0,0969053520611315
-0,212526492299629
-0,22250557757637
-0,163187972537935
-0,942559903847313
-0,29266724780914
-0,926345703266104
-0,00998976411039983
0,76490683729593
-0,264821234688664
-0,4772772449449
0,922528849074474
-0,0721221049264796
0,916239809192866
0,66707617283254
0,109463615460514
-0,678704424519439
-0,788593503060302
-0,486240655031169
-0,0906589582258123
0,949825607337634
-0,521065113249904
0,458960878990485
-0,491869810988804
0,304235285026275
0,81465510674623
0,226702443649061
0,304374974834818
-0,782582413619993
-0,02505766942695
-0,755938929894004
-0,0768230658820668
0,196352265903501
-0,8005527473873
0,667889006202697
-0,201870685399414
-0,450535750708598
0,766931719757627
-0,0602366891101186
-0,3088245737602
0,361200265482115
0,654607719800574
0,934287574464887
-0,225697495113596
-0,728115966296889
-0,574731994082766
-0,434620129814411
-0,732828575347707
-0,317552162046641
-0,74362557361935
-0,249130227142245
0,310928916264126
0,0815347214738046
0,553187858591233
-0,932482933090386
-0,473335508897218
0,347751446714348
-0,360712685669407
0,922017456003461
-0,613185774934715
0,748178351673449
-0,0683834965433158
-0,226958999595176
0,219625458796125
-0,235197226040874
0,650294519386752
-0,595612087817208
-0,486345778650984
-0,671993242162998
-0,817480871838738
-0,251765135429617
-0,0951009636972421
0,327217528139144
-0,530542047413213
0,49154657072175
-0,454273105895031
-0,463541921694122
-0,568848449311956
-1,0157948555309
-0,73772507412466
-0,228891025719454
0,0326702649955946
-0,326619778726626
-0,430228713478304
1,15100513617882
-0,136145215996752
-0,455716398197225
0,566090536485244
-0,949449203300119
0,0158200866894503
0,661277310567996
-0,928958832892991
0,44661232516818
-0,371476958364742
-0,188508236899138
-0,382058241576488
-0,310146743947812
-0,373964684490982
0,899986382032645
-0,365294830287267
0,896140054531206
0,920989849193973
0,934518866471734
-0,595532558046266
0,337945512859345
-1,05734156454502
-0,908625581945885
-0,610232990589796
-0,991683272744441
0,381394298786063
-0,990734538784267
-0,236055195804943
-0,299658082792654
0,823685417815537
0,22171720345204
0,411220359534774
-0,883198387502474
-0,245726082497842
0,128428765354443
0,58900772783934
0,211495881625162
-0,189614010703171
-0,0629893440705061
0,30528490456821
-0,170486914089527
-0,134199078582142
0,373116361099551
-0,421150703958269
0,902108914394409
-0,0191710659650922
0,266269592935597
0,690474728757056
0,0522106692970178
0,581314786325826
-0,673794222069337
0,536260274881843
-0,0806981993782113
-0,387455727888779
-0,152250547341711
0,56535650220719
0,0505029156097323
0,442551989387511
0,760427486735531
-0,658288212602941
0,10783050594691
0,170093655077462
0,685020816033327
-0,880389039362257
0,448791062405409
0,491424075079432
-0,512953920963573
1,05170593158927
0,343774512380191
-0,681994326491351
0,0866028370343004
-0,0764817113012098
0,138060852148719
-0,00458792491046444
0,592749222602351
-0,526202058604006
-0,191289273974943
0,423180999373024
0,197580729116408
0,102755105679929
-0,477806179959192
-0,641505613399112
0,660415447528082
-0,0611332841912656
-0,116022784754116
1,03040393764746
0,818104769412093
0,728835112606286
0,775986999101376
0,281006298593589
-0,0596104524386867
0,553875573492034
0,457255449032005
-0,632341296712491
0,990381379312481
0,522670346118119
0,405575550221977
0,203839617237613
0,321852010359314
1,06112098449301
-0,300887531550762
0,648853209618261
-0,257845012035636
-0,323096301607853
-0,692126960586264
0,814321775970324
-1,05432997712163
-0,893575197058971
0,00192709544255605
-0,435003337031574
-0,241790244610157
0,590815264755426
-0,466690807396256
-0,555691924797334
0,891380632086609
-0,256982374163901
0,277389885012893
-0,165313910648892
0,330669373982739
0,636308010217742
0,813729459233508
-0,364380729393181
-0,635859639238754
0,612973759486914
0,56120345295616
-0,123690085670708
0,322329507953886
-0,182800295039555
0,362929204426773
-0,719895408962275
0,348305588201718
0,971182758238956
-0,547212275357833
0,394035437302865
-0,553194595048776
-0,21671615159737
0,508134620768077
0,372850146485523
-0,126402297263883
0,262771999602518
0,836967044601805
0,772592907351716
-0,377256760472552
0,432525671202709
-0,453917791124801
0,397526458913795
0,351690088647078
-0,0750029298596247
-0,272757745172499
0,041819379848571
-0,680692423748639
-0,273611391459527
0,937787427592899
0,519061254144204
-1,02098846190434
0,615239193702348
0,333368320267459
-0,208776391485556
0,349237934723639
0,256604373118764
-0,637236485576549
0,441911534642573
0,400806693644812
-0,221303628489124
0,156857635757661
-0,00887918571972431
-0,113288935023069
0,335942234521151
0,861335199457055
0,157845105341967
0,194574296092072
0,923963834663275
0,891346025126208
0,702282569330721
0,785304264462255
0,786271488314538
-0,870844729754832
-0,221060653084207
0,285271833316242
-0,838738235716152
0,653533393526767
-0,703883762705914
-0,673194423575673
0,67701863014047
0,738210413304246
-0,29457219355803
0,702585008112539
-0,0900364779265715
0,589007230863345
-0,112638516444769
0,327567046977564
0,382481086726853
-0,869662004604809
0,0232869088346571
-0,0915253616181491
-0,803728994300416
-0,250141870265642
0,920776447377712
-0,583261698316909
0,714382955215
-0,360141297174234
-0,753967965230665
0,275193189075545
0,459578471006629
0,946510978018172
-0,708560089445002
-0,214240061684623
-0,826257978485086
0,80241213596234
-0,816939825634661
0,626466945571111
-0,352180148173208
0,490490655177501
-0,00877039833402748
0,679765129312764
0,96923163159249
0,39896516939577
0,287918544042818
0,00849088794015862
-0,413814749295737
-0,0100378557155085
-0,934628743647891
-0,913422585424698
0,112266205497615
0,627089478503873
-0,528701548533955
0,643551056119042
-0,304142666733266
-0,131465519277094
0,539629220708069
-0,0828993851897688
-0,799936350927801
-0,521046592499937
0,47193192441514
0,694231316668597
0,555925449927885
0,270998178416049
-0,112553980465203
1,28016706171228
0,94220036326251
0,967597711585664
0,852642168890546
0,0766021466766512
0,0171921946434809
-0,00552694530118117
-0,297565488329903
0,475276215324119
0,305949443428334
0,489467078282762
-0,0110862009798443
-0,0630678341106242
0,366479486867341
-0,0868253596906193
0,771093459635248
-0,261722920899508
-0,608767475162834
0,990623146576068
0,822355219459476
0,751726515220645
0,950082504668235
-0,468958601390476
-0,352204536572313
0,350982960019615
